digraph Tree {
node [shape=box] ;
0 [label="hosp_Yes <= 0.5\ngini = 0.062\nsamples = 6787\nvalue = [6568, 219]"] ;
1 [label="age_group_80+ Years <= 0.5\ngini = 0.027\nsamples = 6336\nvalue = [6248, 88]"] ;
0 -> 1 [labeldistance=2.5, labelangle=45, headlabel="True"] ;
2 [label="age_group_70 - 79 Years <= 0.5\ngini = 0.012\nsamples = 6112\nvalue = [6075, 37]"] ;
1 -> 2 ;
3 [label="age_group_60 - 69 Years <= 0.5\ngini = 0.007\nsamples = 5809\nvalue = [5790, 19]"] ;
2 -> 3 ;
4 [label="gini = 0.004\nsamples = 5211\nvalue = [5201, 10]"] ;
3 -> 4 ;
5 [label="gini = 0.03\nsamples = 598\nvalue = [589, 9]"] ;
3 -> 5 ;
6 [label="hosp_No <= 0.5\ngini = 0.112\nsamples = 303\nvalue = [285, 18]"] ;
2 -> 6 ;
7 [label="gini = 0.176\nsamples = 123\nvalue = [111, 12]"] ;
6 -> 7 ;
8 [label="gini = 0.064\nsamples = 180\nvalue = [174, 6]"] ;
6 -> 8 ;
9 [label="quarter_second <= 0.5\ngini = 0.352\nsamples = 224\nvalue = [173, 51]"] ;
1 -> 9 ;
10 [label="hosp_No <= 0.5\ngini = 0.317\nsamples = 167\nvalue = [134, 33]"] ;
9 -> 10 ;
11 [label="gini = 0.378\nsamples = 91\nvalue = [68, 23]"] ;
10 -> 11 ;
12 [label="gini = 0.229\nsamples = 76\nvalue = [66, 10]"] ;
10 -> 12 ;
13 [label="hosp_Unknown <= 0.5\ngini = 0.432\nsamples = 57\nvalue = [39, 18]"] ;
9 -> 13 ;
14 [label="gini = 0.423\nsamples = 46\nvalue = [32, 14]"] ;
13 -> 14 ;
15 [label="gini = 0.463\nsamples = 11\nvalue = [7, 4]"] ;
13 -> 15 ;
16 [label="age_group_80+ Years <= 0.5\ngini = 0.412\nsamples = 451\nvalue = [320, 131]"] ;
0 -> 16 [labeldistance=2.5, labelangle=-45, headlabel="False"] ;
17 [label="age_group_70 - 79 Years <= 0.5\ngini = 0.341\nsamples = 353\nvalue = [276, 77]"] ;
16 -> 17 ;
18 [label="age_group_60 - 69 Years <= 0.5\ngini = 0.237\nsamples = 269\nvalue = [232, 37]"] ;
17 -> 18 ;
19 [label="gini = 0.152\nsamples = 181\nvalue = [166, 15]"] ;
18 -> 19 ;
20 [label="gini = 0.375\nsamples = 88\nvalue = [66, 22]"] ;
18 -> 20 ;
21 [label="quarter_fourth <= 0.5\ngini = 0.499\nsamples = 84\nvalue = [44, 40]"] ;
17 -> 21 ;
22 [label="gini = 0.498\nsamples = 53\nvalue = [25, 28]"] ;
21 -> 22 ;
23 [label="gini = 0.475\nsamples = 31\nvalue = [19, 12]"] ;
21 -> 23 ;
24 [label="quarter_second <= 0.5\ngini = 0.495\nsamples = 98\nvalue = [44, 54]"] ;
16 -> 24 ;
25 [label="quarter_third <= 0.5\ngini = 0.49\nsamples = 58\nvalue = [33, 25]"] ;
24 -> 25 ;
26 [label="gini = 0.496\nsamples = 46\nvalue = [25, 21]"] ;
25 -> 26 ;
27 [label="gini = 0.444\nsamples = 12\nvalue = [8, 4]"] ;
25 -> 27 ;
28 [label="gini = 0.399\nsamples = 40\nvalue = [11, 29]"] ;
24 -> 28 ;
}